<?xml version="1.0"?>
<opencv_storage>
<stage16>
  <maxWeakCount>17</maxWeakCount>
  <stageThreshold>-1.2938704490661621e+000</stageThreshold>
  <weakClassifiers>
    <_>
      <internalNodes>
        0 -1 103730 -5.2492223680019379e-002</internalNodes>
      <leafValues>
        5.7317072153091431e-001 -6.1764705181121826e-001</leafValues></_>
    <_>
      <internalNodes>
        0 -1 8529 -4.4979631900787354e-002</internalNodes>
      <leafValues>
        3.0393922328948975e-001 -7.7315372228622437e-001</leafValues></_>
    <_>
      <internalNodes>
        0 -1 6847 -1.0975512862205505e-001</internalNodes>
      <leafValues>
        2.4394051730632782e-001 -6.2664610147476196e-001</leafValues></_>
    <_>
      <internalNodes>
        0 -1 80695 -1.4850214123725891e-001</internalNodes>
      <leafValues>
        5.8408427238464355e-001 -2.9379343986511230e-001</leafValues></_>
    <_>
      <internalNodes>
        0 -1 13621 1.4682529726997018e-003</internalNodes>
      <leafValues>
        -3.4332653880119324e-001 7.2308307886123657e-001</leafValues></_>
    <_>
      <internalNodes>
        0 -1 2782 -1.5133188571780920e-004</internalNodes>
      <leafValues>
        -8.4956645965576172e-001 2.3295277357101440e-001</leafValues></_>
    <_>
      <internalNodes>
        0 -1 90870 -8.7728010839782655e-005</internalNodes>
      <leafValues>
        4.2591482400894165e-001 -3.6826631426811218e-001</leafValues></_>
    <_>
      <internalNodes>
        0 -1 3810 -2.0986334420740604e-003</internalNodes>
      <leafValues>
        1.7773739993572235e-001 -9.3281972408294678e-001</leafValues></_>
    <_>
      <internalNodes>
        0 -1 123946 3.1024939380586147e-004</internalNodes>
      <leafValues>
        1.3084523379802704e-001 -8.6561685800552368e-001</leafValues></_>
    <_>
      <internalNodes>
        0 -1 94942 -3.8485493860207498e-005</internalNodes>
      <leafValues>
        1.7753446102142334e-001 -6.6898548603057861e-001</leafValues></_>
    <_>
      <internalNodes>
        0 -1 747 3.3576321601867676e-001</internalNodes>
      <leafValues>
        -2.8561335802078247e-001 5.1366764307022095e-001</leafValues></_>
    <_>
      <internalNodes>
        0 -1 118962 -4.6767461753915995e-005</internalNodes>
      <leafValues>
        3.0775693058967590e-001 -5.0101560354232788e-001</leafValues></_>
    <_>
      <internalNodes>
        0 -1 104741 2.9745798092335463e-003</internalNodes>
      <leafValues>
        -4.2108672857284546e-001 3.2904607057571411e-001</leafValues></_>
    <_>
      <internalNodes>
        0 -1 97515 -1.4669625088572502e-002</internalNodes>
      <leafValues>
        -8.5820454359054565e-001 1.6064497828483582e-001</leafValues></_>
    <_>
      <internalNodes>
        0 -1 63580 -2.4949438869953156e-002</internalNodes>
      <leafValues>
        -9.4687199592590332e-001 1.0524748265743256e-001</leafValues></_>
    <_>
      <internalNodes>
        0 -1 69505 -2.1507397832465358e-005</internalNodes>
      <leafValues>
        1.2867179512977600e-001 -7.3331701755523682e-001</leafValues></_>
    <_>
      <internalNodes>
        0 -1 61110 -2.0490703172981739e-003</internalNodes>
      <leafValues>
        1.4724263548851013e-001 -7.5208330154418945e-001</leafValues></_></weakClassifiers></stage16>
</opencv_storage>
